{"w": [[[-0.035656618222008656, -0.015220599910665957, 0.022058142881370014, 0.0008609549684841759, 0.03026080971108179, 0.04407198143115597, 0.05437690828244721, 0.0840047859626432, 0.1217642718920419], [-0.0227463246904044, 0.0022916574085509542, -0.030939369307495638, -0.0386423544561266, -0.07928191315326165, -0.0527992483847927, -0.049092988229399954, -0.0507485483855791, -0.09037419139748273], [-0.017690325051306664, -0.004239518655281733, -0.017907420890429588, -0.01424179916896462, -0.08501346192726623, -0.07515860682927193, -0.08405560333096052, -0.01838478718319788, 0.05680902545846106], [-0.015241245561748109, 0.032784691472668916, 0.042944673862508, 0.04755418361955791, 0.01717057718641037, 0.03413634191701015, 0.05119801296720683, 0.06459113119241675, 0.012268681878783463], [0.016820744533570155, 0.063233577637903, 0.07385983384754154, 0.02012611762254152, 0.028087882787922572, 0.0735817328431773, 0.11085463237436181, 0.038578903031354195, -0.0003335989255918647], [0.08571038064859482, 0.03778793700994031, 0.048760954103725364, 0.05140470993360066, 0.03993048724092881, 0.0366572033460446, 0.04211313939179049, 0.06173345330477616, 0.15595264848278423], [-0.033177164497866174, -0.03697473499908259, -0.04164249300063546, -0.03652707207474104, -0.03678842761550195, -0.045186336361765285, -0.015646945140678256, -0.021517751950818197, 0.010742266164531363], [-0.04420509676997107, 0.026843636152656752, 0.03151901141908455, 0.003814145852279287, 0.05139748100906409, 0.029091211475175047, -0.019533484796009186, 0.03666162886256435, 0.1662583643207202], [0.016629931580466408, -0.0011247704487263165, -0.015625377277239092, 0.05057263113173064, -0.003880416747863758, -0.02865589427941044, 0.03415841683810942, 0.035825154859865205, 0.04779328467506771], [-0.011944376576897914, -0.002387361078122159, 0.14645418671787128, -0.17046723769384392, 0.013954866311925508, 0.3162893602887365, -0.37016001161627454, 0.07167287224373436, 0.7811969250780958], [-0.21536427864264232, -0.27696796802715085, -0.2582332473405721, -0.27581984079664906, -0.18825171226678117, -0.1756486729415931, -0.2201204166928001, -0.26196027940033323, -0.25628064213806223], [0.01851435011598377, 0.04734718386582305, -0.00366323023337109, -0.08543968765071583, -0.014767534986344047, 0.03910733089223535, -0.054042882765838796, -0.012620616854472836, 0.03007323318516672], [-0.04386373841430053, 0.0707012498526918, 0.010481276427218215, 0.012817685469214976, 0.04433638857428371, 0.09664656851342668, 0.022358965343496205, 0.03531855937205427, 0.09392422909796984], [0.04942764745656532, 0.058275744262748126, 0.045500047067590504, 0.02732580208192252, 0.05590005654321, 0.06674154369394808, 0.07515170256664522, 0.05070096430331819, 0.0260530944181294], [0.006715902630236105, 0.02466609599374725, -0.020512142844550118, -0.009707613577545397, -0.02624735274219814, -0.015336243076585387, -0.0050495321158037345, -0.011946731308863066, 0.012045750442600195], [-0.00029417129652547076, -0.0342705723998162, -0.010460672726531554, -0.03498983860359282, -0.019030139569211887, -0.023700289176079286, 0.010002041081328588, 0.02393210941171575, 0.009186520783831356], [0.01286310286909515, -0.04126647893984133, 0.023427486546540845, -0.0028207904293003324, 0.015188587924128447, -0.0063853755234056075, 0.023395861934173968, 0.018711021260521654, 0.04036406030908351], [-0.010206350101954474, 0.021777650176510618, 0.00986596640014984, 0.019927529875757802, 0.028352061173873136, 0.0077549609902832165, 0.0011243699528571212, 0.010121916036366344, 0.026864201778131532]], [[-0.023233528515935884, -0.03454724321767955, 0.003419723774884316, -0.035019997425976376, -0.025276083712852473, -0.020138548096162515, -0.04101859146598132, -0.07190903532526051, -0.018192439283134385], [-0.025147289048179654, -0.015954104975781435, -0.025424676204036552, -0.03208507173806317, -0.05194883001806684, -0.03912253457653424, -0.037290540846986533, -0.03283846378640035, -0.036879578657011074], [-0.04147816349475683, -0.05233097683864819, -0.03492918799723329, -0.045968567759724875, -0.010923523976400272, -0.02312977615939522, -0.04337768477543829, -0.05124290059720998, -0.08820821725794116], [-0.06366919684860159, -0.0826867727299356, -0.14750549625599682, -0.11501187016674737, -0.14115386835178764, -0.1681257049272016, -0.15070724749056105, -0.14902779461386, -0.16151890599260058], [-0.10935597652680056, -0.10747633259034368, -0.09224852607815301, -0.12062944515406555, -0.08579594841180328, -0.12433610814110041, -0.10964425188165657, -0.09066796063812939, -0.0731627844744753], [-0.017344873450851537, 0.0006600452528262552, 0.02531476429926527, 0.034335060094225725, 0.021413113057803888, 0.01988957772224054, -0.03970937617031786, -0.055246572034218615, -0.05946815447262057], [-0.12130731516849748, -0.09723782366751504, -0.0983536286122796, -0.07589998367656905, -0.07752831951894723, -0.08618770117926146, -0.08159940584606842, -0.08001081538265463, -0.08755274657068005], [-0.06614468303852811, -0.06624622922761345, -0.0576590575501729, -0.09445133044068524, -0.07786978103162773, -0.10046246452909019, -0.051944481799868665, -0.07294222669989599, 0.00405230835701354], [0.013530227069316636, -0.005050031050989506, -0.015957705926825456, 0.016024408388697894, -0.02759001012933958, -0.022196910466130513, 0.0011822607583694288, -0.059931561527669, 0.022985178587598125], [-0.0553171420991184, 0.0010596311276579874, 0.06448187501540585, -0.051212659261803024, -0.01589583854099701, 0.0930427980601973, -0.1616436473973692, -0.00314159096592743, 0.22823013127223818], [0.07969871385404259, 0.09159021342973028, 0.09562017950262436, 0.10078717806334145, 0.1016753883679414, 0.13636785286221967, 0.1290916656269161, 0.11267961681755533, 0.09583149753019755], [-0.03237768632006256, 0.0012929659601465507, 0.0030454838463065703, -0.00640698546329196, 0.009679684563078633, 0.03426474935554573, -0.006429605574355126, -0.013627538356859087, 0.004311751665829359], [-0.1151821628142877, -0.10357092059990786, -0.13804388666453368, -0.1345639311582886, -0.1248930465886993, -0.11870394404848078, -0.1224879252986948, -0.11338264548092548, -0.13204351888307722], [0.003609436900409647, 0.005873003182078286, 0.02795764973950074, 0.00890816731391208, 0.04515385363658371, 0.035647021238228896, 0.031951850393205784, 0.010223777962269686, 0.023340790670974523], [-0.003952557156238552, 0.036855018948152664, 0.039307620490893924, 0.042241476058498345, 0.038554375668200754, 0.062179127773274175, 0.009261075552573531, 0.0011429398907608765, -0.020007732226384575], [0.015644626366464975, 0.019559058377193992, 0.022120683562015162, 0.02462260204838085, 0.045160063604659066, 0.05138352864632128, 0.017710955135323603, -0.015832704501049205, 0.014708600196926897], [-0.03225389318667959, 0.006465962971666705, -0.019627088549347083, -0.0093240763170759, -0.03836284821888703, 0.0026354089014875865, -0.01910235723421906, -0.030754708556594845, -0.06801877461335387], [-0.019941384502596055, -0.009986719392244178, -0.01831362879014056, -0.040739054432457185, -0.03890442840297563, 0.0038433179012067266, -0.029459466968273878, -0.04815114718331242, -0.06412267593837565]], [[0.012563219900868785, -0.02797436881530667, 0.0013363887533403413, -0.04235671092758826, -0.03137020538147642, -0.01914617266939406, -0.0483772584277703, -0.10148671121171814, -0.026753236628441857], [-0.004438749951837218, -0.008729612847950482, -0.003228822064886236, -0.0046127779402315005, 0.0010050043885262135, 0.0017609511659937333, -0.010539641912674457, 0.005331866616867052, 0.034702595855511366], [0.016279722758778224, -0.0021725533158038876, 0.03968957572237543, 0.03069451456321552, 0.13764697184434607, 0.11812213979133201, 0.11011148071817675, 0.06951916955449616, 0.033653848299123434], [0.14953643619835247, 0.10345833175024555, 0.0578635634356689, 0.10782191262851017, 0.10333188156147233, 0.06641311372281156, 0.11645557570281241, 0.10065202311792712, 0.1038817313250867], [0.04179037438556306, 0.010102132028430912, 0.02516894919586634, 0.005045560871543241, 0.030164608984385777, -0.021192209098801307, -0.042235102379503474, 0.012134205056816933, 0.018890511956617735], [-0.0026511557509293123, -0.005364180877746752, 0.0029278700853622485, -0.014914259809757075, -0.011550507417812973, 0.004541987551617842, -0.02631022264365469, -0.024464352534494863, -0.027702003036095664], [-0.015779400250455402, -0.027542512900556853, -0.027194972476422698, -0.011531367444763688, -0.0025319744913465912, -0.004177007942965759, 0.006037992497157854, 0.028346063561621157, 0.011700504036439435], [0.02516724248002899, 0.006393952739883712, 0.020479769025418086, -0.010142550197928231, 0.011519095728920318, -0.037744533583269256, 0.04440525732899836, -0.028208927600322807, -0.02163929140323961], [-0.022044378212336277, -0.01956831305116284, -0.02784309673767203, -0.009483791881781693, -0.04861598610749993, -0.01816749773554779, 0.0068557235953093185, -0.07028774322031082, 0.006513111977598184], [-0.0258251003472919, 0.007979486761514751, -0.015165897660782057, -0.021905420208631725, 0.010999104675171794, 0.01552924523283913, -0.08083372895425536, 0.002026028220727614, -0.018502627085202894], [0.20779661882700312, 0.22193613338321877, 0.21114794612952476, 0.2172681839681233, 0.18563494215291912, 0.21785904609339177, 0.21533607886232878, 0.21463765873518212, 0.19145581131795286], [-0.010539103750689635, -0.020168775921013547, 0.00611055416429933, 0.023553835309566118, -0.0012496031771615933, -0.011938896093533548, 0.0050241465442758615, -0.010707811583135517, -0.015134651896417864], [0.06927918086913008, 0.05529370013461795, 0.05791414446891397, 0.06528901970215739, 0.016232086091771254, -0.02955400631943996, 0.009746825441926548, 0.04291066342325948, -0.020027121987860996], [-0.04551332104091573, -0.050353340990384216, -0.026170408554387316, -0.0369683858231505, -0.006410284442824725, -0.031165807213847724, -0.04518066180014797, -0.056707794807831405, -0.02069982121062369], [-0.0019154301492324921, -0.010853825770543247, 0.004621307562598514, 0.003657364445660877, 0.008271826296342306, 0.004274218942694645, -0.007310046199576413, 0.003392299556196049, -0.009257035325592406], [-0.011390693454135492, 0.0019890449422401584, -0.009148097112044121, 0.004345585216780096, 0.000542876407210388, 0.005869869686314605, -0.015605781160506541, -0.02000996488964068, 0.0005889957332231923], [-0.038588842625483157, 0.018788110560658433, -0.019830201310619657, -0.010454316097726046, -0.027604693785753052, -0.008251427578350783, -0.019784052996581866, -0.018789739410717515, -0.03681621843489183], [0.015406308079044362, -0.025836791588300465, -0.026415050476028202, -0.027527789055381037, -0.02774821042902097, -0.01751829842826928, -0.026808741759120847, -0.03626645947270777, -0.015996917463249397]], [[0.07263814671941016, 0.015697793469486975, 0.041036512292046606, 0.0033141234577783573, 0.028649516154874655, 0.05420952152482149, 0.03335143253568796, -0.02251167228676474, 0.0718076050476903], [0.03086619608438197, 0.01799563244451409, 0.02786090938127139, 0.03384338708442094, 0.06353265304103839, 0.05591552722647222, 0.021212442448654056, 0.051583274450929556, 0.10680027121007556], [0.06383733383879064, 0.04131386351767143, 0.09593999629504252, 0.0924334692057848, 0.2422579204758398, 0.22005264333908386, 0.21813333260122436, 0.16393645170491455, 0.148677579884145], [0.3138637153820827, 0.2625138883555106, 0.24182104857919628, 0.3042135599887943, 0.30010303580553793, 0.26393009441942433, 0.3324769274820794, 0.3054767267650676, 0.3113110492731479], [0.20074739067520517, 0.1535461103906637, 0.16126489666273347, 0.14600856044652108, 0.1520640530807534, 0.11432004728055871, 0.07226205088520013, 0.14367707820170766, 0.1223141560432665], [0.05662464772587859, 0.021054675073968947, 0.016186398819343705, -0.02967809282248081, -0.009864968673925176, 0.013286206374901504, 0.01882849005127599, 0.03644414569443291, 0.054128540923457334], [0.13490974404247025, 0.08436512243730747, 0.08952049241191697, 0.09810885839968131, 0.11314911979355341, 0.11266595747046701, 0.13249122426573814, 0.16266692523265933, 0.13627314235978755], [0.0825068157052295, 0.05927879945129672, 0.07460611155129196, 0.048114130750459026, 0.07469921077098611, 0.0110794312961025, 0.10679348320991318, 0.015581755788526084, -0.012440758761089419], [0.02440927373323581, 0.03816483473346353, 0.037205236845719, 0.03884213279169216, 0.007038044608821158, 0.06014008208789111, 0.08268880051516278, 0.004073587123540616, 0.053098005090025685], [0.037168785947966756, 0.04530882157931499, -0.043175104721029436, 0.0017928253430511342, 0.06358337674074757, 0.03844827871367158, -0.006559485713012652, 0.0672356406202389, -0.06937340184773898], [0.2801875198721544, 0.2868551443336742, 0.2707400940512584, 0.2792059029007783, 0.23517796514560024, 0.2645683466997835, 0.2694187645960224, 0.2782504611366077, 0.2487299213576096], [0.027737372515163394, -0.02104499243793502, 0.012544335075269633, 0.0362613855639811, -0.0007195213971270829, -0.03324768583890559, 0.02697083435036071, 0.022102211680541484, 0.0032752407692589382], [0.24102812016145597, 0.22229911928051171, 0.24118842364110016, 0.24898042094831874, 0.16151073521943762, 0.0770759001569279, 0.1284250063542212, 0.18227702904766768, 0.11497644897710795], [-0.07455072665101124, -0.08720039261531153, -0.07766003800307783, -0.07636883818547514, -0.05413942337270612, -0.08892574707097442, -0.10960089639962627, -0.11029456924834297, -0.06340328386692728], [0.002879066174721567, -0.0437488728530468, -0.03529639204776812, -0.03181054300593387, -0.02751145796009659, -0.06329112955147757, -0.008991963026659066, 0.015853623241932034, 0.02121454778262159], [-0.0169241391445298, 0.005335070232673097, -0.004879383695539185, -0.003659820335014526, -0.041223946277533695, -0.043626137381052456, -0.022168504812904572, 0.004566254377270174, -0.03406785359044409], [0.023719487874749628, 0.06182064626628144, 0.046193957486454, 0.04438168137828518, 0.05541466964323948, 0.0441467185835091, 0.04686822891177393, 0.055408699995039584, 0.07420536381437151], [0.09211021785690632, 0.019713555716674293, 0.023762662894423997, 0.04394695618322426, 0.054343645927976504, 0.043049598237425574, 0.05799049323033597, 0.057568160921433756, 0.10888059788221675]]], "b": 0.01680029153162588}